{
    "biases": [
        [
            -0.7750807861202508,
            0.39381886463870636,
            -4.06764229397441,
            -1.6322473712562073,
            3.414467450705766
        ],
        [
            -5.801729674853741,
            -3.568269175397656,
            -2.0832735057164644,
            -3.8602648455436936,
            2.2858237434398836
        ],
        [
            -4.95003071264674,
            0.3726899536366385,
            -3.0763774452312806,
            5.794420648212344,
            2.5043663427242437
        ],
        [
            -0.2676442586091985,
            -3.16792030151707,
            -0.04793927765550459,
            -3.4555259965962635,
            2.4723069314502473
        ],
        [
            -0.52396892240657,
            0.4128340580688445,
            4.8139866646695415,
            -6.217746438598989,
            3.197537478204875
        ],
        [
            -4.4653291075227095,
            5.2085849417842915,
            3.143609287487469,
            0.2757385913915658,
            -5.666664899587149
        ],
        [
            4.799055136854484,
            -2.679994079069807,
            -1.1760885693050804,
            -2.341869736640815,
            0.7243575816137874
        ],
        [
            0.4511280162414972,
            -1.2597505662198898,
            -0.4262067992224936,
            1.8327727111762402,
            -5.631480614682107
        ],
        [
            1.276449218799752,
            1.897237358604822,
            -1.955829767008388,
            1.3237629998029947,
            -4.3545196447673575
        ],
        [
            -3.9963021293741927,
            -4.0595872999222005,
            -0.5772829566665023,
            6.796001378882047,
            1.4306019602700202
        ],
        [
            -1.6869310562339406,
            0.5946551797386913,
            1.2952899771951483,
            1.9226039134339856,
            2.15943150356288
        ],
        [
            -2.5331284998615926,
            -3.4952105489212997,
            8.322507917358202,
            1.675466260746144,
            -4.35927176241914
        ],
        [
            0.4394955084639241,
            5.270072930887214,
            0.35800972476868903,
            -4.707226244582555,
            -1.0828141716793904
        ],
        [
            6.877487531040357,
            -2.6934285887994176,
            1.4379894608131656,
            -2.4649988598828996,
            0.530009847429619
        ],
        [
            -1.4077907053723862,
            2.848157868440387,
            -3.0671057493789213,
            0.6760190975348516,
            -3.55267947414834
        ],
        [
            -2.2624127464968127,
            6.998299549329996,
            -2.4364549313881807,
            0.5093989824848009,
            -0.8175780960639322
        ],
        [
            0.7565230540631678,
            -0.9513458681582957,
            4.723822364129187,
            -1.3469056627513505,
            -0.7130719127896699
        ],
        [
            5.190043855548122,
            -3.6624090451982845,
            -2.7551654506663765,
            3.4886617948929555,
            -3.96018458117814
        ],
        [
            4.109740045944549,
            1.963468772121505,
            -5.214853940009995,
            -2.4216811387920885,
            -2.6441083803490133
        ],
        [
            1.5394071587557279,
            -3.6580362830842073,
            -0.4517244562442216,
            4.147509015307535,
            -5.189676708064409
        ]
    ],
    "classes": [
        "tech",
        "sports",
        "tv",
        "music",
        "politics"
    ],
    "datetime": "2018-04-22 18:30",
    "weights": [
        [
            -0.20146110489752214,
            0.4123474397613764,
            -0.9048059265416281,
            -0.4389696304233307,
            -0.7555724764075318,
            -0.7952582530260991,
            -0.6319454342002558,
            -0.25540464040111277,
            -0.19554971690059328,
            0.21220265101762673,
            -0.15537292693506327,
            0.30034125120730115,
            -0.6153409618180301,
            0.6745859370265667,
            -0.9378964121388659,
            0.35154523027645085,
            -0.17468638598347164,
            0.1842754661937907,
            -0.7199228583955884,
            -0.5166352209046972
        ],
        [
            0.5524966979559693,
            0.8896610604293127,
            -0.5379002397758824,
            0.29960279167601495,
            0.7772124621327562,
            1.108448434140936,
            -0.9227145508237298,
            -0.8839357471179462,
            -0.6031874757243617,
            0.48110569706513595,
            -0.8143186725323123,
            -0.16851790207883843,
            1.0737755815139622,
            -0.022350964895766275,
            0.43703861794800186,
            -0.14070923124679224,
            0.3540495073988179,
            0.5883431758435965,
            -0.8391968996688585,
            0.4916545464369028
        ],
        [
            1.0500247313690003,
            0.5810241777717592,
            -0.19973952624595256,
            0.5751682961793958,
            -0.787820586051845,
            -0.3013648357020839,
            0.7801437467855749,
            -0.4491358313799158,
            -0.3619876090645627,
            -0.4606434271922726,
            -0.8615337667261218,
            0.371228119509411,
            -0.721661138205901,
            -0.5508663391808004,
            -0.14961311872720046,
            -0.9235369839420833,
            0.140359898677234,
            -0.7911578952480196,
            0.08601706139272221,
            0.5672673446064904
        ],
        [
            -0.6793929787197286,
            -0.28248932622099643,
            -0.4204349320914582,
            -0.004140485036584024,
            -0.45814982900061574,
            -0.29608141588347764,
            0.928218601162932,
            -0.016970813548489852,
            0.9409505395577654,
            -0.6734320626332437,
            0.5527165747678537,
            -1.010341281359877,
            -0.5129876163679403,
            1.3302386347649975,
            -0.2542100441806894,
            -0.8112806791013653,
            1.0532612163950414,
            -0.11165562933322852,
            1.0536773271781095,
            0.23573488813204124
        ],
        [
            0.7103510753330456,
            0.3121959786775068,
            0.3247715230041667,
            -0.19698969633255098,
            -0.1212674301441507,
            0.6029728529260701,
            0.09295514416799153,
            0.9731898880808911,
            0.41933008510516084,
            0.40002506002758165,
            -0.8700218318651923,
            1.0174926495982355,
            -0.1809761180478003,
            0.17622869999779953,
            -0.21343304118707146,
            -0.5961011471021984,
            0.8513137646399185,
            0.38689876060319633,
            -0.9217315081075541,
            0.24480221981390982
        ],
        [
            -0.6477873622532374,
            -0.015041872271986795,
            0.7494932109602611,
            -0.4190521636096482,
            1.1596969985205579,
            0.7765468964828652,
            -1.092064226612267,
            0.9332912973322388,
            0.5336260419321774,
            1.1044800140337905,
            -0.6651346318521646,
            -0.8433486892086611,
            0.6406464915674001,
            0.2241771143688447,
            -0.7330271833444768,
            0.6321893853205584,
            0.8479463067654041,
            0.5528442805165253,
            0.2572886623120937,
            -0.742003392858119
        ],
        [
            -0.9586515074071521,
            -0.9673670383398426,
            -0.9253260026612808,
            -0.5075218396781064,
            0.7112433001877031,
            0.021421652423454233,
            0.10852368039355147,
            0.6900569711093186,
            -0.7515608719249923,
            -0.436858269172988,
            0.17176759241519296,
            0.8446815288238365,
            0.1200484100186862,
            -0.9671745164082636,
            0.6238876790755161,
            -0.5366850950160014,
            0.6135721752411996,
            -0.19532024889590366,
            0.7349000356366945,
            0.5196367327623592
        ],
        [
            0.04736015316375363,
            -0.5311999908088302,
            -0.34895530667230273,
            -0.698075945407122,
            -0.9588883735857996,
            -1.1748034812834438,
            -0.5645624363812918,
            0.5521832079342729,
            0.09278154183405884,
            -0.9068244586065418,
            -0.7838024894093235,
            1.036403996815192,
            -0.1423038333301607,
            -0.7182205317983654,
            -0.5983290415671789,
            0.04839158535189018,
            -0.6186732784650746,
            0.19606900073585337,
            0.7404412236925433,
            1.206793344064267
        ],
        [
            -0.1754888129571307,
            0.19080663842458087,
            -0.39013055060521523,
            0.8042119215916397,
            0.17770206553009993,
            -0.4796899625203595,
            -0.9088897358919295,
            -0.25045508286912227,
            0.1905254145868205,
            -0.9064221992593254,
            -0.5613676908718338,
            0.5458503094218722,
            0.747097957476906,
            -0.3124918392352889,
            0.3238738800603682,
            0.9549888565785832,
            0.4342327004567694,
            -1.153570354827059,
            -0.40336654741323985,
            -1.1012815905258322
        ],
        [
            -0.18586653107186843,
            -0.15566599011905696,
            0.4523408210856661,
            -0.7124065975803924,
            -0.9367476301955275,
            0.4041438957394492,
            -0.5298095405137011,
            0.5569950881340475,
            0.02519317631986608,
            1.4595250089023122,
            -0.48233442117633585,
            -0.24482912986864305,
            -0.3961395979479666,
            0.4349069075273071,
            0.8071101587194016,
            0.1904609617603556,
            -0.7524170718503214,
            0.10957519154726761,
            -0.03226501793332994,
            1.588184995350182
        ],
        [
            0.8298565341288088,
            0.2203130732767084,
            0.8063524249080437,
            0.4203923390736567,
            -0.12396246066149667,
            -0.05939719417740307,
            0.24214130073462636,
            0.10842023699167894,
            0.7261849452593523,
            0.803045875768727,
            -0.2117040143952793,
            1.2682103991689355,
            -0.7941332905148117,
            -0.6471862761130849,
            -0.7451903888379849,
            -0.24354072070671873,
            -0.8731057555850569,
            0.9370500182752779,
            0.5151906544567805,
            -0.9701611512303431
        ],
        [
            -0.6458067980686556,
            -0.3352993142891587,
            -0.8018197425734906,
            0.6495263465342808,
            -0.3233746311026405,
            0.7775315957180033,
            0.343409106647353,
            0.7907462894140301,
            0.8273669379110108,
            0.6902566951677456,
            -0.09004795412923633,
            -0.1261795726662977,
            0.6451816349233214,
            -0.31872219552312764,
            0.06787102801914263,
            0.21826320542460698,
            -1.1052725328652755,
            0.1949617880868757,
            -0.11062962651296401,
            0.6194966062711447
        ],
        [
            -0.32519112228927655,
            0.6826455915110838,
            0.03685150783741147,
            -0.6277366313191436,
            0.3523738161769071,
            0.12208410084517336,
            -0.5776557062792342,
            -0.08541005686249048,
            0.5646565720515346,
            0.7690202483319828,
            -1.0007894951878729,
            0.8284884091006744,
            -0.26895557983533713,
            1.1559728747417264,
            0.24795300858390906,
            0.5280055730856256,
            0.1466897088085661,
            0.45541849009934493,
            -0.38071033025904444,
            0.18588470649026134
        ],
        [
            0.6553616271358811,
            0.8362782552134541,
            0.7709808657804614,
            0.5638708715929844,
            0.81118107182782,
            -0.44301982994489175,
            0.23543997409097137,
            -0.10888703620761159,
            -0.2570931730380167,
            0.19172135525978237,
            -0.12150176994073561,
            -0.35860257531718837,
            0.031049232334262943,
            -0.33840980889329086,
            0.8533640853389507,
            0.312345663037017,
            -0.6450414327111472,
            -0.2165905047173006,
            -0.36852528107089977,
            0.5380391427953336
        ],
        [
            0.9648206387538534,
            0.853560339616423,
            0.5646883818201683,
            -0.2167942179518934,
            -0.4313210835529108,
            0.29069166664267787,
            0.11650599984957809,
            0.4929340270230163,
            0.14366121163395015,
            0.5994576865398429,
            0.04068751127644773,
            0.3552959499187542,
            0.11238135470029324,
            -0.06639153149851214,
            -0.5018110436081461,
            -1.0054365562837777,
            -0.30276474034930845,
            -0.8535130008499543,
            0.9879974103385031,
            -0.7468394394638943
        ],
        [
            0.48234757283358437,
            0.5440891623553449,
            0.5971533171416035,
            -0.19235342657220253,
            -1.1451437055319966,
            -0.1724376265646211,
            -0.3030356394194301,
            -0.1795848979622024,
            0.46372228075527094,
            -0.02268827997888891,
            0.7955550606788014,
            0.8081893885383473,
            -0.6615487647960915,
            -0.6381608205908225,
            -0.6260009022678436,
            0.040241947170826214,
            0.40276068809252075,
            -0.23333150460126445,
            -0.35704315307566226,
            1.205824815526411
        ],
        [
            -0.2109252920217318,
            0.2510094136335579,
            -0.5302889797023258,
            -0.7876291337200189,
            0.09477656659742796,
            -0.042139847830022364,
            -0.6994419627195432,
            0.2234440292590705,
            0.07755970413245286,
            0.27637515995379447,
            -0.7101455171358234,
            0.6222567462159244,
            -0.545174696655848,
            0.04291785598473516,
            0.5214459578554972,
            -0.9671766243035979,
            -0.30927706599487187,
            0.683351982808721,
            0.5864994364812743,
            0.029693826631395772
        ],
        [
            0.6064484180772219,
            0.9780261688940487,
            1.0131989903148193,
            0.5580874629331934,
            -1.076381594391547,
            0.21464592618517017,
            0.37739771396036514,
            0.38652518102003125,
            0.6151145033194892,
            -0.5645476945071305,
            0.6465451903056034,
            0.6071900841872452,
            -0.5631702703557826,
            -0.7334838903696037,
            0.2680668005967322,
            -0.4017640403182188,
            0.5912350445784952,
            -0.09414452084767812,
            0.4024511290631804,
            1.289728918408695
        ],
        [
            -0.6430818198442717,
            -0.6183338609172065,
            0.8764645706341345,
            -0.14239087869471978,
            0.5974051453394394,
            0.3010074717666574,
            0.8908272686475839,
            0.30802107707703635,
            0.11515175669128398,
            -0.2921840086141125,
            -0.2440551075131315,
            -0.48828949017340045,
            -1.1268586838042307,
            0.3087751516369758,
            -0.9505622379903549,
            -0.46230338885314864,
            0.8489925840296525,
            0.6405648686089934,
            0.1400659506900132,
            -0.17389437479785785
        ],
        [
            0.13108744385409224,
            -0.5141208465344792,
            0.07489508733652794,
            -0.15869467885285324,
            -0.08204654943468231,
            -1.1151846601620539,
            1.419326897823713,
            0.06437528063683168,
            -0.8392898322178303,
            -0.7143346264797554,
            -0.679684730271206,
            0.08309671983405041,
            -0.10350616384087712,
            -0.12439663335141124,
            -0.1250385317282764,
            0.1286079297448035,
            -0.17743242869422457,
            1.3866971211472405,
            0.8884573673933389,
            -0.16666980274687104
        ],
        [
            1.2553566892887342,
            0.8529868769106355,
            -0.6416678206745692,
            0.7101817249900779,
            0.08156711559388821,
            0.5291072554393764,
            -0.46663210258960136,
            -0.8456795952481092,
            -0.9186601763248716,
            -0.11706346150539085,
            -0.7706408880871335,
            0.022557926407989724,
            0.42281059343659894,
            0.40177170706863535,
            0.2753124208980539,
            -0.4985637732676015,
            0.6440402112705462,
            -0.1836873005733413,
            0.5205898290087025,
            -0.0055150113525604125
        ],
        [
            -0.3453786489355102,
            -0.7116061805999991,
            -0.9536673798008125,
            -0.8412326609296795,
            -0.31309262638180757,
            -0.8808793181956571,
            -0.8582125523909817,
            0.30147929859985,
            -0.2033006040297922,
            0.6656412932035595,
            -0.13454933088101298,
            -0.28547208460488405,
            -0.0954326728435621,
            -0.11226529582549077,
            0.49335760147104385,
            -0.2029523374601922,
            0.7363990403515847,
            -0.9645267969755161,
            0.4473729229393629,
            -0.8398962349623471
        ],
        [
            0.16005176784710443,
            -0.9076678773212692,
            0.08308707678347249,
            -0.8902945515984112,
            0.891306613345124,
            0.8643902686189656,
            0.5629014987431059,
            0.8572683182515004,
            -0.7848026006805813,
            -0.6201440402432885,
            -0.6223554469045672,
            0.7150949878363814,
            0.749363086340169,
            1.0106006230482554,
            0.267040698300981,
            0.35808955638425016,
            0.9687754964365007,
            -0.21749886557117556,
            -0.7602646413343993,
            -0.5973333498475019
        ],
        [
            -0.833486164658269,
            0.5366924259333139,
            -0.8022205133779277,
            -0.575660682681478,
            0.5196726238604308,
            -0.4344654009042251,
            1.0513340191847949,
            -0.46039611842247796,
            0.1707515369593228,
            -0.38955502079941484,
            0.8020491139808387,
            -0.26688761804908384,
            -0.1594573489770461,
            0.08353856201394362,
            0.8581989639489961,
            -0.9606991645596971,
            0.42871549296951966,
            0.9637000649941385,
            -0.7983737548706888,
            0.09476990190601815
        ],
        [
            -0.39064310501673694,
            0.7366179210542539,
            0.11941184366421101,
            0.388892083753881,
            -0.031230467436556754,
            0.26019625311313194,
            -0.4245915475310114,
            -1.0014712782887336,
            0.14305133647875892,
            -0.40901110572276855,
            0.03529859961711783,
            0.9520128180532322,
            -0.1363233992529049,
            -0.5009937195425579,
            -0.3065585760296334,
            0.851884752985871,
            0.9157347771709434,
            0.6261671271399253,
            0.7374932498884561,
            -0.5913867786550527
        ],
        [
            -0.8263449427984366,
            -0.4629424359054723,
            -0.16444276255434365,
            -0.6525235469025866,
            0.21147133345653474,
            -0.157466214795952,
            0.6002982332525495,
            -0.6360404972293561,
            0.39311655159707765,
            -0.3276722943840034,
            0.20202455367957173,
            -0.37372581794538295,
            -0.8923393151642526,
            -0.7387665192854589,
            0.3673303026494667,
            0.001937069110031089,
            0.0010996384789535726,
            -0.810761082439064,
            0.020091273844617813,
            0.9874166997824283
        ],
        [
            0.5698391984730736,
            0.18528248807505773,
            0.4168516601776735,
            0.8350148394277411,
            0.5909622398432276,
            -1.0692952217066847,
            -0.6412944920734216,
            -0.6208882598422695,
            -0.1723872893136504,
            -0.5613615047927483,
            0.9132197811850045,
            -0.3523092709966004,
            1.0496522184348327,
            0.6107111707700358,
            0.7262876393082986,
            0.12404873702769562,
            0.7241047725639469,
            0.284920402018392,
            -0.8748592970963418,
            -0.2756563817472351
        ],
        [
            0.2509091746324439,
            0.6657794509935997,
            0.14343378887083183,
            0.16505438778728887,
            -0.521319113634498,
            -0.9793646592939842,
            0.33724255125740255,
            -0.6146157259486383,
            0.7713985382153203,
            -0.46498080812573545,
            -0.1954771491969149,
            -0.05694613473452167,
            0.5070244044998645,
            -0.38083228193419183,
            -0.7597592566754651,
            -0.3656540073127457,
            -0.06407753696272679,
            -0.0452479164426719,
            0.4118518137024414,
            -0.7615125833853124
        ],
        [
            -0.5923579043584948,
            0.49768786813306093,
            1.1439752126688856,
            -0.5619983734336427,
            -0.17107588612898156,
            0.13752481644859535,
            0.09262969982269745,
            0.6078586659092435,
            0.016365684815079582,
            -0.7942272223323581,
            0.18184873071096327,
            0.7169876612961338,
            0.23711584358414678,
            0.09630727734616097,
            0.033101643312335415,
            0.0759912584954245,
            -0.5869863219730842,
            -0.02324769147916149,
            0.08261681237988337,
            -0.3129487623634344
        ],
        [
            0.7143167387910054,
            -0.5240856009059726,
            0.5840563745027467,
            -0.4200782189618718,
            0.31134345649067935,
            -0.12728252234134638,
            0.5183253801629496,
            -0.28778030915816954,
            -0.5703188220731132,
            0.5598034386544525,
            -0.314498892272387,
            0.4838088827870771,
            0.46358708259373477,
            -0.5687583605514676,
            -0.5715172968567961,
            -0.5767488909561833,
            -0.7185195289750566,
            -0.24707367200073638,
            -1.006832572793993,
            -0.686412982868212
        ],
        [
            0.5919511881089936,
            0.8373733597726056,
            -0.8397118710067696,
            -0.2978812489304586,
            -0.4008577009862551,
            0.5244672045859876,
            0.45439896855856776,
            -0.16767397620253266,
            -0.4592160257763149,
            0.6127061569308316,
            -0.10679167340244118,
            0.504216594843987,
            0.5107242664290915,
            0.06140313388807414,
            -0.7543175010277733,
            1.007107307521851,
            -0.7035996354978515,
            -0.6515601147815732,
            -0.0405098778558477,
            -0.426910633535975
        ],
        [
            -0.6917791768034051,
            0.5099888318451423,
            -0.5711105466696682,
            0.22273600845524527,
            0.3538241345254632,
            -0.41010430682620796,
            0.1614470148173972,
            0.5233917600033816,
            0.34024865608455607,
            0.1146444400856476,
            -0.40156430198997195,
            0.6715109279827683,
            0.7876093874565276,
            -0.1478216058773757,
            0.6960523508499719,
            -0.6354642821463513,
            0.626119899728886,
            -0.535480063318786,
            -0.2173158188858689,
            -0.4592072109953897
        ],
        [
            -0.802465928807043,
            0.8703068764919852,
            -0.13183164146837303,
            -0.07647512272720017,
            -0.08725162956259482,
            -0.3742039821201612,
            -0.7466893706218543,
            -0.8381501782772399,
            0.11538312854590724,
            -0.5812198901123441,
            -0.28512781584839014,
            -0.8457378127443174,
            0.6009174578368711,
            -0.8008051477730149,
            1.2512147861286498,
            -0.5779068325773394,
            0.003557554089060323,
            -0.9476954418977779,
            0.5762869076226413,
            -0.6299029387820672
        ],
        [
            -0.015754002280316478,
            0.49273186344199366,
            -0.8132127985469713,
            0.24003370987616207,
            -0.3686252915829274,
            0.528332910897267,
            0.44832271952931285,
            -0.6204231361374977,
            0.576148863297538,
            -0.9598675129010282,
            0.7096866816860342,
            0.4871773365787569,
            -0.17293332599640104,
            0.6328842371345779,
            0.3018340485144385,
            0.8021602830973181,
            -0.43965417099511056,
            -0.9927222947893002,
            0.8568947260405844,
            0.7178623807608965
        ],
        [
            0.36838611413649713,
            0.01606092116637434,
            0.10395453134443725,
            0.7608898309137286,
            0.10112809501016973,
            0.3032320032249234,
            0.7583388950012224,
            -0.06863762873817367,
            -0.24630604901610795,
            0.001129059366991045,
            -1.1336964622377752,
            0.432216945928159,
            0.9582869745910428,
            0.13803183712389877,
            -0.8953089388973331,
            -0.5601929040011226,
            -0.4076162905636771,
            0.8693088342458662,
            0.3933445277516611,
            -0.6115569895657136
        ],
        [
            -0.7113366340926329,
            -0.428397335585019,
            0.17076435488749808,
            -0.43835019167482653,
            -0.020927181676241892,
            0.09066745830075322,
            0.6499356375233736,
            -0.18774139715525529,
            -0.30454356075341005,
            0.09110709887237704,
            -0.5908353153272099,
            -0.0927249018835124,
            -0.14155409113906697,
            0.23431297682490576,
            0.8716764156443949,
            0.15623464333380935,
            0.5336166232377432,
            -0.11087902387167013,
            0.38983925246111256,
            -0.9208197023234691
        ],
        [
            0.0847829683169119,
            0.9299463081695862,
            0.5057201969822774,
            0.6006849995280521,
            -0.01938852923351836,
            0.00886890536915205,
            0.5095827838670988,
            -0.895369327794685,
            0.17369720821316562,
            1.1695893529097545,
            0.06088219302596449,
            -0.833614141063871,
            0.5529032204299767,
            -0.8577325003989795,
            0.42922161251219476,
            0.08419644209523976,
            0.7121361220670274,
            0.15055427892761636,
            0.6748632514676647,
            -1.0858980320488725
        ],
        [
            1.1305927699599267,
            -0.34085171432878525,
            -0.2082650235158999,
            1.083064171478853,
            -0.8547504785444443,
            0.909893640785422,
            0.46086505287070123,
            -0.3239857153353262,
            -0.7646009636786442,
            0.6157855897355051,
            0.09963136627848831,
            -0.8024611137222765,
            1.1801698771795825,
            0.4613113135814359,
            -0.005509256515042432,
            1.0312791340152603,
            -0.15749316640593827,
            -0.10399980104040424,
            -0.45663048817777396,
            -0.37492985457179945
        ],
        [
            -0.6552986427857769,
            0.9236111534358101,
            -0.4771017472393169,
            -0.7979427122231793,
            -0.8221882895794951,
            -0.7898129827357905,
            0.33286167081777307,
            0.166775817565185,
            0.5911370586754771,
            -0.2391807657292299,
            0.5600644186509399,
            0.3791020170126903,
            0.7274425545551664,
            -0.44312579627567894,
            0.4768742353459207,
            -0.27303631095084663,
            -0.45503820890820507,
            -0.6808563188542968,
            -0.062226988924529894,
            -0.5566764498599219
        ],
        [
            -0.47866449448389164,
            0.9382293962840113,
            -0.4368619810212392,
            0.9911845840530459,
            0.35789815848152223,
            -0.11121870871871906,
            0.6816491148041165,
            0.3293642018620067,
            -0.5046033627346169,
            0.6185456625314885,
            -0.13521423248772876,
            0.02299181962246876,
            -0.4588727415019601,
            0.42026634746391744,
            -0.6035606354102382,
            0.47029512156044145,
            -0.2365974267311557,
            0.061687251000285416,
            -0.3481583986944151,
            0.7908111062351622
        ],
        [
            0.7711569443539522,
            -0.6757522098530929,
            0.15299881224751913,
            0.8298321567476846,
            -0.12766807917091816,
            0.667251860751117,
            -0.3570109061555612,
            0.28306676720555113,
            0.3678919323874184,
            -0.5690509791342171,
            -0.9728706869128109,
            -0.1414547405972598,
            0.7840826555090055,
            -0.1415296353926216,
            0.4839623971577941,
            -0.7383988834661059,
            -0.3124913763160943,
            -0.5411744164925146,
            0.43387406050628335,
            0.43835514951463067
        ],
        [
            0.37937374665821716,
            -0.4704601948047698,
            0.45043525395690287,
            -0.5965355288288909,
            -0.18626512018098304,
            -0.3112781938377874,
            -0.27755131287663937,
            -0.8672054760501008,
            0.3217302596719786,
            0.4565864348769366,
            0.22978558685826841,
            0.13567990578468545,
            -0.6966627934855313,
            -0.7126766897615591,
            0.0286700695199705,
            0.7928577779001394,
            -0.6731815967488827,
            -0.007043352709411639,
            -0.12314172595110824,
            0.05843405814992537
        ],
        [
            -0.2540905499582452,
            -0.18889462424075265,
            -0.6446155672020611,
            0.536264852354172,
            0.25892765933387074,
            0.07295846078971518,
            0.17738248558030298,
            -0.882930437080558,
            0.12164644064126148,
            -0.48030611828596576,
            0.6056156150610439,
            0.03588742159287305,
            0.506210284933945,
            -0.742884551790581,
            0.036068592300480457,
            1.3288446497551643,
            0.7061459654095275,
            0.30930042961246207,
            -0.3723015240115317,
            0.23831398797961278
        ],
        [
            0.03197973998435668,
            -0.11127473383357607,
            -0.28845150559988186,
            0.10763020134904075,
            0.8273772463186703,
            0.7488329614406667,
            0.16520744269743334,
            0.9626264486963216,
            -0.8415187829202186,
            0.7540179657564537,
            -0.912493525695861,
            -0.22490085141276203,
            -0.05714074762770439,
            -0.6607207958873633,
            0.26098025931589064,
            -0.9051832792546682,
            -0.3870347364960225,
            -0.8459121466885229,
            0.406174469189751,
            0.37251512964262046
        ],
        [
            -0.24255515025682842,
            -0.6452863821909853,
            0.620317024451752,
            -0.47646773938208165,
            0.3836723691937497,
            -0.04564316072401706,
            -0.021791719365114048,
            -0.8586385547638957,
            0.2562450805951097,
            -0.12948324886418017,
            -0.5483835740515575,
            -0.18663074642108624,
            -0.1621369141592423,
            0.07918072870406277,
            0.9764814043162171,
            -0.15458815082086372,
            0.49976219373209063,
            0.12811941939115207,
            0.6760237468940594,
            -0.15561744613167203
        ],
        [
            -0.45211742955609296,
            0.8169848813665935,
            -0.9316277590925572,
            0.8865747988245978,
            0.07037334676460393,
            -0.3162699447303442,
            0.994745597427324,
            -0.8437014497280751,
            0.11097596390193189,
            -0.9440810607540959,
            0.1420976120021819,
            -0.6749928487085949,
            0.22992652816665782,
            1.041919193332718,
            0.7522361074562648,
            -0.08231605549414941,
            0.35116687633876265,
            0.6861198539392346,
            0.15686450294047025,
            0.11547348050637235
        ],
        [
            -0.5553127847629756,
            -0.056414658934930334,
            -0.5363515714001102,
            0.6593281917464598,
            0.21105955492892423,
            -0.14200251782300444,
            0.8103858077285063,
            -0.24014063792598736,
            -0.272605338931334,
            -0.2616940947518482,
            -0.8134321154719932,
            -0.4021214981943089,
            -1.032574384577869,
            -0.41917721787757983,
            -0.1606636039776275,
            0.8352936022950916,
            -0.7866178640290887,
            0.29809906698611305,
            -0.08741446980045009,
            0.2742496766164508
        ],
        [
            -0.3218302306627409,
            -0.694954498551952,
            -0.18047784238520115,
            0.2046466035244284,
            -0.7681389239461954,
            1.444330259125072,
            -0.9264024040799987,
            -0.5876573095708112,
            -0.8353206138914604,
            -0.61494750524776,
            -0.48218852630038594,
            -0.20179184581817408,
            0.0990844252148177,
            -1.3933951692831927,
            -0.12338582002293334,
            -0.1561834049810665,
            0.04887951273681326,
            -0.9085059732413385,
            0.28717548246710367,
            -0.4438474074967903
        ],
        [
            0.9786352182591952,
            0.7275654088395724,
            0.5970324245784814,
            0.7893341433442891,
            -0.9730065270447098,
            -0.8556733651166133,
            -0.1241609383637816,
            -0.16863919230600422,
            0.9823824218503479,
            0.26691796579247684,
            0.10737038062201074,
            0.9690832938834769,
            -0.1272958963040371,
            0.6873384583146106,
            -0.3955310553636036,
            -0.4413623988800257,
            -0.36104429483380496,
            0.033940014793230805,
            -0.6549265474387946,
            0.4841832888524885
        ],
        [
            -0.7272795941812911,
            -0.8376553664044469,
            0.7739748567194646,
            -0.5322689720097348,
            -0.24323945908393443,
            0.09419577151665891,
            0.024099775006631425,
            -0.8459995840889929,
            0.7501697664399681,
            0.9354481029860992,
            0.6306775184266479,
            -0.5273491453811352,
            0.03239723591267497,
            -0.33400640006072313,
            0.13511057464079507,
            0.9434297841782274,
            -0.3893293331699509,
            0.3503353754640216,
            -0.3578959007261235,
            0.5850455757798162
        ],
        [
            -0.18903650786253431,
            0.716456538904459,
            0.5884666522638359,
            0.5125673923859212,
            -0.1352100780874583,
            -0.4458502953900638,
            -1.0040003282080565,
            -0.40271052006050456,
            -0.7943721410465027,
            0.369099567102429,
            0.31652986481177964,
            -0.1525463296828435,
            0.5773688392300723,
            -0.0003917817924433055,
            -0.9659262210417228,
            -0.5425008702692038,
            -0.6066351469468051,
            -0.35780687755498874,
            -0.9501120323347095,
            0.11613217262235534
        ],
        [
            0.1477983518625736,
            0.44084533434055456,
            -0.04366626719924995,
            0.8396512646511494,
            0.11573406800650393,
            -1.0481138983680658,
            0.7490813581886984,
            0.24229850393250815,
            0.6187583863299394,
            1.0005683085884092,
            -0.8941605155772312,
            -0.6371091120941789,
            -0.8738507493825511,
            -0.1645887792171929,
            0.5230058826219698,
            -0.9143259773210344,
            -0.0514860885430714,
            -0.8072641602641795,
            0.4148434924720805,
            0.4308821945594226
        ],
        [
            -0.6695601068885721,
            0.05400680774354715,
            -0.6806613406635322,
            0.8586741371173242,
            0.8313288724124345,
            0.4867968769795111,
            0.8033809006799784,
            -0.42646869895483114,
            0.8164629167075894,
            -0.3929631940723613,
            -0.5619845600589307,
            0.6068415489520012,
            0.7991720805715061,
            -1.1445764630526352,
            1.0361884840948274,
            0.9404532675458005,
            0.015938554664943726,
            0.06804694539844762,
            -0.3135740335575793,
            0.02779713332196245
        ],
        [
            0.6340475081849057,
            -0.8994680192049096,
            -0.7127503377415995,
            0.5786442504811204,
            0.08924688105056701,
            0.14619841651986415,
            -0.5392662377275524,
            -0.41137340294983393,
            0.8321835407817769,
            -0.2419471501540708,
            -0.8737890581805519,
            0.7684348490720778,
            -0.4978627935601083,
            0.6213247237419149,
            0.8027260575152562,
            0.12264644905617451,
            0.11668363254750527,
            0.046398340904391176,
            0.271452839750547,
            0.6746440562924838
        ],
        [
            -0.4317277533114965,
            0.8124833814688058,
            0.2507237363620245,
            -0.9448738017322417,
            -0.6294980456603531,
            0.4281519024507476,
            -0.5540874050508106,
            -0.7642466324521228,
            -0.5815139227455675,
            0.6748921997724526,
            0.19217260104502318,
            0.7403044353007366,
            -0.06638484984987371,
            -0.002311972889628629,
            0.20868386164265135,
            0.279371015450331,
            -1.0098102453415636,
            0.489279617230786,
            0.9326338174487674,
            0.007328874377802977
        ],
        [
            -0.42636971527311185,
            0.6192678604729398,
            -1.0275926086925038,
            -0.17535114944741417,
            1.0165751126296645,
            -0.06365860977697979,
            0.8154762399636387,
            0.16057221902948215,
            0.45890935733877986,
            0.7852421676476785,
            -0.36100295038266494,
            -0.8249654542537275,
            0.422754077554636,
            0.030141435095244112,
            -0.8740625379959794,
            0.047359573481757004,
            -0.9090360043464589,
            -0.6903510269926376,
            0.5596318619491989,
            -1.0276466305484047
        ],
        [
            -0.4998682799108194,
            -0.8991554022164026,
            1.2560094299773255,
            0.15294085975795263,
            -0.8331241958162712,
            0.7458781694968881,
            -0.017638033612709245,
            -0.06197135530172242,
            0.15226026566426742,
            0.05403857079554311,
            -0.34749847084589497,
            -0.14113986543122842,
            -0.8010214990910918,
            -0.0650697069902555,
            0.3776436235808471,
            -0.8849772961864769,
            0.8299691051085701,
            0.6276008814421,
            0.34509408983463413,
            0.8222584867962099
        ],
        [
            -0.7482586018338248,
            0.05588968842506386,
            -0.0001296295567513276,
            0.5984825576949104,
            0.09251009216798695,
            0.21100556370708123,
            0.3632850466756686,
            0.22113522197158292,
            0.230020542802908,
            -0.4895297744759954,
            0.5922630127858864,
            0.5574553888881665,
            0.6891807723348614,
            -0.5708902930052043,
            -0.8973181547173138,
            -0.23629559710005002,
            -0.3614591927532562,
            0.5426639012029684,
            0.19308603719849166,
            0.5174854088272856
        ],
        [
            -0.1948313468864427,
            -0.5901901157179741,
            -0.9374848063245605,
            -0.05582301017805365,
            -0.4669676207036138,
            0.6740571833709498,
            0.21749095189568396,
            0.24479884773369243,
            -0.267894893180362,
            -0.8470529358698595,
            -0.5085139891800884,
            0.4204968283205607,
            -0.5066201236536443,
            -0.8576368834905196,
            0.1587275293444599,
            0.1621148298892551,
            0.05554702054533627,
            0.5355913133572574,
            -0.20698553861048044,
            0.5907107285242593
        ],
        [
            1.2052339106657206,
            0.5568184807906124,
            -0.3762739524745085,
            0.5703817727502156,
            0.9961038690443399,
            -0.7566648808794169,
            0.8498107866129683,
            0.1344143368571268,
            -0.4754291902530139,
            0.8245276209415134,
            0.863210961422123,
            -1.4025837129981624,
            0.774197385197658,
            -0.6781289528896945,
            0.2956574833355933,
            0.19699893670945545,
            -0.3415210768916357,
            -0.8356187598993122,
            -0.04394872998924143,
            0.019227435020304058
        ],
        [
            0.6380828250912015,
            0.2119580996726858,
            0.8949049138814844,
            0.2132683188649492,
            -0.6242369479439352,
            -0.31782330498352834,
            -0.24150068966716876,
            1.0492944426325166,
            -0.2365424949116831,
            0.9599393014944506,
            0.03720278943858616,
            -0.6303432623844046,
            -0.9437329857015029,
            -0.08697446750565986,
            -0.8286884741779454,
            0.18116592346275992,
            -0.1685573574621807,
            1.1514614068821856,
            0.8602436795201666,
            -0.6617880332594995
        ],
        [
            0.04268322890451105,
            -0.26932820053564377,
            -0.3858725441144958,
            0.7238712716833909,
            -0.48900520048599266,
            -0.4991826713072552,
            -0.055726714188077155,
            0.7609749579503864,
            -0.8807431417977715,
            -0.14781685404702416,
            -0.8176916515979762,
            -0.09310839994163078,
            0.0061366935859519176,
            0.7647938662389433,
            -1.0194872805682698,
            -0.6271094546097933,
            0.49236593158655023,
            -0.1195323185698302,
            0.04173308831814633,
            -0.22964243376375235
        ],
        [
            -0.4539958664064265,
            -0.7711475403429522,
            -0.5886942927266499,
            0.6219897912824054,
            0.722060515269033,
            0.6212234375073306,
            -0.0742820798895118,
            0.6386856995199268,
            0.12877083491729324,
            -0.42149627237322157,
            -0.4559251299117281,
            0.6582861125020354,
            -0.2087823984705228,
            -0.03710324802801617,
            -0.23967616351879303,
            1.1290152320781375,
            -0.3989974410168575,
            -0.4106347703805224,
            0.6536767216997892,
            -0.7562361909165447
        ],
        [
            -0.7620265163926664,
            0.6542065523317432,
            0.5063328640362025,
            0.18109712041003814,
            -0.5230294472483316,
            0.1902538141153163,
            0.2795903645043628,
            -0.33886592538523524,
            -0.86492881602973,
            0.7658515679333927,
            -0.07983748835286487,
            0.433235468317342,
            -0.49423478660725273,
            0.17830526938088614,
            -0.11978734558812357,
            -0.23843235759976786,
            -0.7472114483025132,
            -0.4825082106062964,
            -0.833500507565525,
            -0.3688899432768554
        ],
        [
            0.08757926077187855,
            0.3371730931347933,
            1.264227815762356,
            -1.1861315621969557,
            -0.950838146998491,
            0.2225381313893249,
            -0.7223727624352814,
            -0.25107014263518335,
            -0.4184675189627958,
            1.8394919609992362,
            0.8660717824148593,
            1.048348190023357,
            -1.2632825745497274,
            -0.2501733929641429,
            0.7234874833876818,
            0.5381439747516021,
            -0.42946516236445564,
            1.0971034579342016,
            0.5530067583277223,
            -0.0645520202639513
        ],
        [
            0.21540007839289807,
            0.09937571763811834,
            0.6605029286400711,
            1.1404074625870149,
            -0.12964258091503045,
            -0.1194836844945334,
            0.5234505874130131,
            0.2614372031808424,
            -0.3008122948441258,
            0.7990977019850051,
            0.06889701166251203,
            -0.6099052429387453,
            -0.3917198560407619,
            -0.7844152237744488,
            -0.6149997319184689,
            0.854957850339565,
            0.35342665802953327,
            -0.13597721471926213,
            0.05584678236131184,
            0.029808157869946096
        ],
        [
            0.4281150728297351,
            0.8251937425524042,
            0.6435619799434521,
            -0.7252305848617204,
            -0.38096607711198277,
            -0.4690544968060164,
            0.7140410691615201,
            -0.5400759082470035,
            0.381118795880311,
            -0.9337450486208559,
            -0.5912569864139205,
            -0.12474378497858847,
            -0.6682505334037723,
            -0.2298499647824389,
            0.23527576639053882,
            -0.31472662733928713,
            0.06906417553858639,
            -0.02423330880411101,
            -0.10471062937395972,
            0.1252824204678723
        ],
        [
            0.3897005845333659,
            0.42051011209177697,
            0.2566488976738664,
            -0.12729871991958797,
            0.38995872684685084,
            0.48846910810030914,
            0.26779566144437444,
            0.9476892566417928,
            -0.20946663154773396,
            0.6091245767384934,
            -0.8887341935341954,
            0.4366244383476502,
            -0.011533252558322344,
            -0.9747960949374088,
            -0.6482758130599827,
            0.030027184495885324,
            0.47088698929995215,
            -0.9667108438463337,
            -0.01024618931373564,
            0.3725160048452147
        ],
        [
            0.24375946515077604,
            1.9567421104958824,
            -0.6658975971473413,
            0.04502677457728614,
            0.5380155776454176,
            0.5690441585731801,
            0.318574807497264,
            0.7905118344896354,
            1.1663939638565273,
            0.41872818127043954,
            0.16018142592108028,
            -1.431533434376982,
            -0.44647906296496975,
            -1.1420184225268877,
            -0.7648209549311887,
            0.13859850899404166,
            0.07008005045975882,
            1.149887924015495,
            0.36848663138297794,
            1.088419524044393
        ],
        [
            -0.37361504223710146,
            -0.25961045588165954,
            -0.5263543966678595,
            0.7894809010293086,
            0.3964855902406304,
            -0.9711885427774375,
            -0.05394717719884434,
            -0.28838595448890303,
            -0.9343977186418052,
            0.6356698811096447,
            0.5242350983452974,
            -0.34645629370722086,
            0.5443490601020847,
            -0.17927357537164132,
            -0.4155069351839926,
            0.6574954953751193,
            0.9605696368422152,
            0.08716538128597798,
            0.9877351067791811,
            0.8593617014030179
        ],
        [
            -0.014678403112257703,
            -0.32052634686395026,
            0.4373057194213881,
            -0.15404485871730814,
            0.19777312959033774,
            0.9777623706065977,
            0.5539316487160543,
            -0.2657156802228799,
            -0.8146525746330592,
            -0.5866222965502704,
            0.054489460024945875,
            -0.1375588172019731,
            0.5903466489576896,
            0.8661561711546747,
            -0.6279473806856372,
            0.6888205619488336,
            0.8957090953864063,
            1.0034911640090751,
            -0.9245234181560261,
            -0.7821641454251363
        ],
        [
            -0.8146325178022348,
            -0.07473118974876693,
            -0.9647430910040733,
            -0.3141859654740282,
            -0.06461134460068896,
            1.1266133806599274,
            -0.17840106752503296,
            -0.5065798344299159,
            -0.12793961459128658,
            0.14895005179455945,
            -0.8097804295849139,
            0.3701003798305099,
            0.8368824904630147,
            0.31755027001831065,
            0.8780449410898377,
            0.04856690892017541,
            -0.2565743324601466,
            -0.8183045605864083,
            -0.4057359882220237,
            0.7800093351261788
        ],
        [
            -0.5465956610119415,
            0.6684287507861991,
            0.8793514145359079,
            0.48221693390536885,
            -1.051536456934166,
            0.7615713073298329,
            0.2596097465290859,
            -0.31919408961396584,
            -0.0985511481789599,
            -0.6489543338821177,
            -0.14414408300051373,
            -0.8237986257964626,
            -0.6754431733599312,
            -0.6064935828510154,
            0.3874232448339823,
            0.1581708127643665,
            0.6256629939924192,
            -0.4312557799717954,
            0.31550049983319073,
            -0.5729674982887809
        ],
        [
            -0.3872541858231901,
            -0.6007456627112385,
            0.1059276081548176,
            -0.5407359690657142,
            0.1955975113793515,
            -1.1186715947135508,
            -0.7721104409597945,
            -1.7449502859077917,
            -1.1259539323532586,
            -0.4473703321847023,
            -0.7346877744904332,
            -1.2836846833987203,
            -0.17697579720231524,
            -0.08463705952441512,
            -1.1743381996029116,
            -1.3443116140581328,
            -1.0934758462524263,
            -1.1090841956996424,
            -0.9207252681288272,
            -1.1595008537031661
        ],
        [
            -0.4278011009505575,
            -0.8238770623756111,
            0.7727822984318624,
            0.45597910592144336,
            0.8787425601090822,
            -0.2891989012535412,
            0.7373833161599631,
            0.8607813151251523,
            -0.42761649757247533,
            -0.6429565159181567,
            0.08898175499991161,
            -0.7859123028166726,
            0.13386440630998575,
            -0.6474537160331424,
            1.0654933293015685,
            0.27002824708607037,
            0.8757988145110702,
            0.0680300201359982,
            0.023824342838057847,
            0.768968283899294
        ],
        [
            -0.19112586800252437,
            0.4532747196941207,
            0.12931427100702816,
            0.4869917458802224,
            -0.20471181265930388,
            -0.06816181337655343,
            0.052998460204483504,
            0.28093304326126445,
            -0.5620515492858081,
            -0.6420854150073394,
            -0.5944493704592343,
            0.4811309977112985,
            0.5649722261890158,
            -0.8758884595647211,
            0.29457558813653517,
            -0.28621108277772406,
            -0.6850043186306563,
            -0.3994809621547072,
            1.0021503498171036,
            0.8757049859947247
        ],
        [
            0.12210611573628892,
            1.2396458486989712,
            1.3823873729670413,
            0.27378866486708864,
            0.21750532687421914,
            0.15742263147386276,
            -1.0051899480100723,
            -1.461280484637609,
            -0.6980828389210895,
            -0.5200175168864631,
            0.5608212037343314,
            -0.40061260248721653,
            -0.3384899900376303,
            0.42702408191643076,
            -0.6934909244353449,
            -0.11498429805891,
            -0.698596095918936,
            -1.0312259508848274,
            -0.8782301582767781,
            0.35599081260883764
        ],
        [
            -0.9130401675437004,
            0.5167363094197799,
            -0.5095429914797589,
            -0.965008955180503,
            0.0023971251998472494,
            0.7299695682409824,
            0.7541020534484872,
            -0.3010998482871379,
            -0.9761123821634274,
            0.9902078978692502,
            0.6479086051067464,
            0.9492676890304329,
            -0.11215735948696207,
            0.6052216633919882,
            0.7924300435296683,
            -0.13114961571474296,
            0.10814993250399826,
            0.169395193747933,
            0.2519642473909931,
            0.6315606537956256
        ],
        [
            0.039438512977327006,
            0.670596350986628,
            -0.11796165087754339,
            0.650933754476817,
            -0.3573191033041761,
            -0.4824262605105893,
            0.9564541627953956,
            0.4952917833754663,
            -0.4703889951834414,
            0.02850287678378247,
            0.8896048124225368,
            -0.7122030783152474,
            -0.782904734615826,
            0.2426429255487455,
            -0.5202070680766246,
            0.5964480368156565,
            0.11203382594349709,
            0.3244009496781186,
            -0.6781682399075745,
            -0.9003364892328188
        ],
        [
            0.20309918842082844,
            -0.14460763597615112,
            -0.8231966625243048,
            -0.27682179285177005,
            0.45731714597305706,
            -0.5946613895601484,
            0.6613758547318616,
            0.9793340478990998,
            0.9313063671208578,
            0.3705505097816414,
            -0.18718430040242384,
            0.7900410398261283,
            -0.33550505790792207,
            -0.5056462978990377,
            0.31065492782456766,
            0.2673454687253136,
            0.7819291229073705,
            -0.6420677970486521,
            0.5010918986285734,
            0.8619098687693777
        ],
        [
            -0.9933721944103664,
            0.04192761534361405,
            0.46263424574493356,
            0.710923486617416,
            -0.7234356342571803,
            0.5885210114885752,
            -0.26367536734149843,
            0.7942549525664074,
            -0.9686517819550632,
            -0.5985653252045806,
            0.9637209467992323,
            0.25280318793462214,
            -0.2421666230902491,
            -0.662079102339584,
            0.23913670148023605,
            -1.0008734008329123,
            -0.3737834915616684,
            -0.2809815924984338,
            0.15893198670730338,
            0.4392719469474877
        ],
        [
            0.677530011362108,
            0.853864040165378,
            0.24326310711769514,
            0.06935630959663343,
            -0.23302657490378578,
            1.0236902552322549,
            -0.6971399607038431,
            0.7954031331954343,
            -0.31133757342365204,
            -0.048893608729868934,
            0.34990781554866307,
            -0.5947046974623227,
            -0.5341806315530733,
            -0.11621535302240454,
            0.672165710193197,
            0.5863628731824563,
            -0.7740636352281929,
            0.7718155691896855,
            0.02314758127235475,
            0.8879189575761886
        ],
        [
            0.10845563740978627,
            -0.8501853687745754,
            -0.5770129073537988,
            0.7085319709485672,
            0.4030421363513661,
            0.7336385640459959,
            -0.3388282733893836,
            0.06199797966536433,
            0.30088876280342186,
            0.19335607997806525,
            -0.5368250794328814,
            -0.24086726891904778,
            -0.5057891003723849,
            0.6867608293081412,
            0.9959772236504487,
            -0.8694920364332837,
            0.4272178485375622,
            -0.3108104326260997,
            0.2586870831406985,
            -0.4583472541482706
        ],
        [
            0.5528616179412417,
            -0.36087228551269035,
            -0.6013891331748032,
            1.0638193763159502,
            1.3037933335716465,
            0.4117099522907,
            -0.7182067000603004,
            0.6745761540502689,
            0.5646050792563728,
            0.2691235690301043,
            -0.6407436771039597,
            0.16539841773077815,
            -0.40345395347513785,
            0.1982334785618779,
            0.3895576740641847,
            0.6068210107433919,
            -0.33854529992260196,
            0.38282415939021214,
            1.066952173871505,
            -0.15712525291822876
        ],
        [
            -0.818658994069521,
            -0.7968789336809047,
            -0.7506340318459968,
            -0.6598575474841349,
            -0.8376908878528565,
            0.4594226129613113,
            -0.9199682328276961,
            -0.5034314039415367,
            0.8155545527201101,
            1.0934680987596173,
            0.2276596268465006,
            0.8733433419100075,
            -0.9154461490060305,
            0.8945976308617523,
            -0.37608217690367574,
            0.5741866809947913,
            0.5126343082014342,
            0.7351932698432591,
            -0.058779526029496064,
            0.9942739951117213
        ],
        [
            -0.3039020633976047,
            1.365475154407443,
            0.13752313399677968,
            1.7400436762874913,
            0.13439177103717256,
            0.6131488603130004,
            0.12766708999841286,
            0.04117822934466271,
            -0.5800351527556651,
            -0.31282775249656364,
            -0.42727834067863557,
            0.0878749355320157,
            0.43937046567360616,
            -0.00918551448191522,
            -1.266648622351037,
            -0.07737076944251592,
            0.8457274408825447,
            -0.07577337331956867,
            -0.4784528448249113,
            -0.19727606640332834
        ],
        [
            0.808242076076832,
            -0.29076005174263253,
            1.7185759370967406,
            0.6906533543498166,
            -0.4767267119889132,
            -0.5066009719927952,
            0.014053532972167337,
            -0.7838970006426932,
            0.6487991105658567,
            0.5454966554323106,
            -0.3082160363011794,
            1.0611117824068164,
            0.0568309727256915,
            -0.29951327704432595,
            0.9410896042143564,
            -0.2996887019383243,
            0.6681482134060228,
            -0.14106645910984397,
            -0.7094968107465764,
            -0.3934641603454556
        ],
        [
            0.9078519484769151,
            -0.05764796105250605,
            0.3560942597192583,
            0.4194746095939679,
            0.6443270910915363,
            -0.8878373800847899,
            0.8425831432363178,
            0.8801612311128193,
            -0.04379419772821539,
            0.9284140654353853,
            -0.44887623917945774,
            0.573662968529975,
            -0.18644889010285165,
            0.371436838600359,
            -0.530759377823008,
            0.4662247027925033,
            -0.856252311212659,
            -0.9165544990079928,
            -0.9121177213225626,
            -0.6970217715795642
        ],
        [
            -0.23361482292275934,
            0.8935309438026274,
            -0.7321026971300733,
            0.23233817294777911,
            -0.0066070881693406636,
            -0.24044142016678197,
            -0.6674449179005965,
            -0.5300407942679244,
            -0.90815645647699,
            0.5155265025917791,
            0.3303704804620627,
            -0.08966776058617895,
            0.39168704639181234,
            -0.8713773706217276,
            0.9137908178415247,
            0.6743343224993684,
            0.3022582122580762,
            -0.23631390276477268,
            -0.21772634582012587,
            0.07679552744147607
        ],
        [
            0.8580252509680302,
            0.6994199135064049,
            -0.3748613873577183,
            -0.06588906579629968,
            0.48333902611692925,
            1.3645256797979592,
            0.4197837985959885,
            0.6447994104190463,
            -0.3478639910907199,
            0.39503044678672117,
            0.3125176345648899,
            -0.1373820330576242,
            1.3190470826524214,
            0.5692058417739958,
            1.104987578657393,
            -0.5024998872239459,
            0.1731902135866297,
            0.5819990464203948,
            1.1905315714884228,
            -0.6051047883562971
        ],
        [
            1.212509520333702,
            -0.7148218722774333,
            -1.3003328217487973,
            1.128658440137361,
            -0.05152561131729869,
            -0.32657870821165186,
            -0.1989530273833108,
            0.12065384682510742,
            -0.153081688070253,
            -0.873769575435541,
            -0.1739441512960484,
            -0.37541410630072397,
            -0.11171803614465739,
            1.1201340476389376,
            0.2752757007373444,
            -0.366896084781663,
            -0.050998176892499004,
            2.1073867042163794,
            1.4966609981203465,
            1.3938051606951976
        ],
        [
            -0.5677697856815179,
            0.39489578553862503,
            0.9095113502282737,
            -0.9558356741666243,
            0.47000418620061224,
            -0.8051188816806971,
            0.11807169566834477,
            0.260830976676061,
            -0.5541730223410891,
            0.8170736984534045,
            0.24938477574023366,
            -0.26033216099256384,
            0.4453602927599502,
            -0.7314029268464555,
            0.10729649935070863,
            -1.0233801768431585,
            0.17170624468144957,
            -0.4815537199310814,
            0.17233129183412624,
            0.4451291470423862
        ],
        [
            0.05044994053207354,
            0.24475876709070402,
            0.6092468665325614,
            0.4982134801763135,
            0.3195818053303801,
            0.25253135766290513,
            -0.28043872452252977,
            0.7438667315723672,
            0.5017315630425551,
            -0.6571614197894068,
            0.11684052999472974,
            0.6444837777458187,
            -0.633032094270381,
            0.49331462346009153,
            0.811804934268263,
            0.3911373015247854,
            -0.9721180111958713,
            -0.9489225558934485,
            0.9602952992594824,
            -0.9203871895022046
        ],
        [
            -0.2578261514471783,
            0.38954976403328634,
            -0.7623059805574087,
            1.1860654816158027,
            -0.4162880875116537,
            0.08102188482359945,
            0.32881418394415224,
            -0.5383530235344478,
            -0.20850614227554948,
            -0.13247211238818069,
            0.5023065212034218,
            0.49304692493219454,
            0.023979549432470527,
            0.44009442927103304,
            -0.2234318235728743,
            -0.17349820900172397,
            0.3391844393815651,
            -0.6391079381852653,
            0.439398841996548,
            0.09794718308425619
        ],
        [
            1.01933027284085,
            -0.4638340406630738,
            0.07661378103105844,
            0.9126726625753617,
            0.33339723991935366,
            0.42299342133734014,
            -0.20512711678419057,
            0.3623169967520294,
            0.6968848208178452,
            -0.593383096357802,
            0.61596996446689,
            1.2400424241241883,
            -1.114975856961541,
            -0.5732896718806731,
            -0.9217767639297574,
            0.45459736329387107,
            -0.726445736153646,
            0.9874724478634984,
            -0.3876739959059128,
            0.8247830064806823
        ],
        [
            -0.6709403320023581,
            -0.1821394844813017,
            0.6230758946514089,
            0.1701188718685847,
            -0.10570140045029279,
            -0.0182872261255548,
            0.1956954548188045,
            -0.061103918818080694,
            -0.576774774054474,
            -0.8891143721972061,
            -0.7620679457239712,
            -0.9089780634572658,
            0.14399254374804302,
            0.8249016199394988,
            -0.298463710654231,
            -0.8968128845342732,
            -0.13479374564838179,
            0.3231004631971607,
            -0.05434755703944088,
            0.6800893164430536
        ],
        [
            0.6863452004748705,
            1.3528638495023533,
            -0.05201456923922169,
            0.6920140401474852,
            1.5860110756506347,
            0.28974901884544885,
            0.4740423696880638,
            -0.8717984874683206,
            0.537574994654928,
            0.07546249429397926,
            0.5088270975582163,
            1.014267283815165,
            -0.3627760243176112,
            0.14875458768208494,
            0.6953600470189935,
            -0.12595577866857297,
            1.265036686970919,
            -0.6452550575907138,
            -0.1752306000553927,
            0.8731254746344739
        ],
        [
            0.23793260508650202,
            -0.9558656589282748,
            -0.23763441419094472,
            -0.41553975223528566,
            0.08879725458402285,
            -0.11127247564049858,
            -0.84828051310328,
            0.3745326639178942,
            0.4198711949291153,
            0.4590992902044881,
            -0.7462493530729376,
            0.5865074644671215,
            0.8115339980232206,
            0.20441833666050271,
            -0.5368713183916759,
            -0.24889906444724239,
            -0.1819587128859973,
            0.0026899776143150898,
            0.0791024568271888,
            -0.0737142993622951
        ],
        [
            0.5095690071399879,
            0.6900063415351293,
            0.8930756152894487,
            0.5820899942941241,
            0.05476869392072387,
            0.864532188861753,
            0.2037413952788211,
            0.2849094669316482,
            -0.30368080769627426,
            0.6083653637086525,
            -0.8909699221593217,
            -0.6771641966879598,
            -1.0262495630384758,
            0.23823221208934806,
            -0.6491095407564963,
            -0.384573880588634,
            -0.9299945891359193,
            -0.3977593671902536,
            0.8010129291910103,
            0.023775259984683533
        ],
        [
            -0.6395064755159333,
            -0.12875464489882746,
            0.7074925573445633,
            0.651100162762078,
            -0.11988603438168459,
            0.08967230768111176,
            0.41477205949400914,
            -0.6023161534886508,
            -0.36786074802260776,
            -1.175650706657154,
            0.7083428607390057,
            -0.293223282803828,
            0.27303625434753204,
            0.33688826789284926,
            0.7962493419116955,
            0.25853085711065155,
            -0.7544023294679412,
            0.5856288045705189,
            -0.7117986223611853,
            0.8112653086202963
        ],
        [
            0.10638068261856118,
            0.9184517519787239,
            -0.0856587853758467,
            -0.3326682236335611,
            -0.018522402038896445,
            0.2822103391788726,
            0.8522142640223989,
            -0.6475126015040563,
            0.007608629909592078,
            -0.4828866915081229,
            0.44793326005367184,
            0.8807545183744795,
            0.12941855336597555,
            -0.5126391507461944,
            -0.8213739476093147,
            -0.6719764396725958,
            -0.028098186373049523,
            0.19017281614999731,
            0.5838670730685781,
            -1.1147292394303092
        ],
        [
            0.8975942971973871,
            0.29750485607649535,
            0.4042147104388325,
            0.9536510843538716,
            -0.2479711076976271,
            0.35348811679398545,
            0.301179864167541,
            0.027758696651701588,
            -0.32733360653071664,
            -0.9260169302910221,
            -0.5014381484633924,
            0.559646908538847,
            0.41919454911771775,
            0.5903837690663366,
            0.1600407266670662,
            -0.516676225432063,
            0.2143030701001838,
            -0.40315457131530996,
            -0.8444076095207466,
            0.8037260962235075
        ],
        [
            -0.2154896961397917,
            -0.03448782585332877,
            0.44296040039005086,
            1.0395650414365474,
            -0.7746059547828076,
            -0.6495760923680659,
            -0.37463728421209097,
            -0.5232935540253271,
            -0.01684236899409302,
            0.5471160702591988,
            0.7629338737256304,
            0.5531133284713506,
            -0.4825242140959645,
            -0.5939039152283228,
            0.2956087780875524,
            -0.59944951853396,
            0.13358133487606882,
            0.18396878855655802,
            -0.7858589407124483,
            -0.6518562145388958
        ],
        [
            -0.928080683895278,
            -0.6447465836525054,
            0.6993332057557436,
            -0.7257772133349659,
            -0.4450150910128537,
            -0.8206501848846242,
            0.29787883514206903,
            -0.4803466529869663,
            -0.20485610379581035,
            -0.7176911823222135,
            -0.23454911866167594,
            0.15680471921957875,
            -0.09221410255752967,
            -0.1434395627014048,
            -0.8046276882286667,
            0.5134742342251744,
            -0.6622413226475924,
            -0.16378224102329672,
            -0.6141036134768986,
            -0.3841199566046881
        ],
        [
            0.4308450643597904,
            0.08354947542090875,
            -0.5289995470291586,
            0.22522820102521626,
            -0.14578520512782786,
            0.034888413218999,
            -0.4628079107339795,
            0.582218858000721,
            0.04826290031688244,
            0.18428545897571078,
            -0.42237599807850384,
            -0.6072275813650742,
            -0.26826820222201714,
            1.0976353023836702,
            -1.0603896593457427,
            -0.5394404875783838,
            0.6022967989023364,
            0.41089398204452093,
            -0.4761165125379704,
            -0.333482980200985
        ],
        [
            -0.1833944429783641,
            -0.16849982784004475,
            0.11810799558384946,
            0.7632936051800361,
            0.4571836200879553,
            -0.6885793724756606,
            1.0573727650582652,
            0.6433261269341491,
            -0.36942820282223854,
            -0.45399481736725067,
            0.6955693570396162,
            -0.887080624728824,
            0.41283930000701113,
            -0.42018218229383525,
            0.5105585902490505,
            -0.4639028503787463,
            0.5679411652371996,
            -0.1147962834565997,
            0.29363533292624777,
            0.6789378255262913
        ],
        [
            -0.17855102709325638,
            -0.27217036157622615,
            0.3796790211094355,
            0.8579188861908044,
            -0.2351752087791216,
            -0.2545605151032327,
            0.8260416767018693,
            0.5385027913071803,
            0.0884517254226693,
            0.2979938606291554,
            0.7239020242256506,
            0.8147610198794535,
            -1.114393301517129,
            -0.13903486964132422,
            -0.0009631044645668833,
            0.15573569523946687,
            -0.820404357807592,
            -0.4799157452507982,
            -0.4902406142303756,
            -0.3945848456193926
        ],
        [
            -0.13295204704995828,
            0.43338936409182927,
            0.23550850100967818,
            0.2850630124038295,
            -0.0987306721326094,
            -0.24618274354816866,
            -1.0184360186663053,
            -0.5754239917156816,
            -0.4086353933530912,
            -0.1400292377795444,
            0.2523250864169708,
            0.4943180274607712,
            -0.26659213195774567,
            -0.44980531889844594,
            0.2559857852940785,
            -0.691580265672542,
            -0.9771237168527174,
            0.5925915166366867,
            -0.40942974641853913,
            0.720337583002589
        ],
        [
            -0.4803086805872477,
            -0.5094319101142714,
            -0.4004620432138842,
            0.6908447475680476,
            -0.5066435639273341,
            -0.5693851752513563,
            -0.21672942485681856,
            0.11999698770254849,
            0.2088628769626385,
            -0.7078603777822146,
            0.21730619167272697,
            0.47616499151269703,
            0.2644967938931358,
            -0.625722636386099,
            -0.22394363928940167,
            -0.7305196864835113,
            -0.5833389990644073,
            -0.3179107189078244,
            -1.0687166767264846,
            0.20668472229292661
        ],
        [
            0.4549157179140725,
            0.5532071325340432,
            -0.8884305786767319,
            1.1655372905943497,
            0.3502105890892585,
            -0.27711727296880395,
            0.7890310141752617,
            0.0793831674572779,
            -0.20794947412926199,
            -0.8992983905668123,
            -0.8302064244370437,
            -0.43763920259440575,
            -0.5967697364597289,
            0.418789296606827,
            -0.6774433107035015,
            -0.07583796430933103,
            -0.9390723499168135,
            0.4900659059160414,
            0.035399280776628635,
            0.10878205982729558
        ],
        [
            1.0018134864162944,
            0.407052064732161,
            0.1680636525682173,
            0.03212286714343089,
            1.5750250746236902,
            -1.1829231033110261,
            1.27401953156479,
            -0.8904342359613897,
            -0.2271657288225096,
            0.8132544597366588,
            0.4980233458833662,
            0.24523086578959546,
            -0.345035130425946,
            0.5924604838953251,
            0.5347507866107588,
            -0.3836777426208991,
            0.21138662046200893,
            -1.1289417051505606,
            -0.24300931160065192,
            -0.3921440575463289
        ],
        [
            0.7545089803758582,
            -0.6448384152528042,
            0.33510350152260726,
            0.19043541490624788,
            0.40799819980850155,
            -0.6537878789378031,
            -0.7103974139248155,
            -0.3243291133288074,
            -0.982475861311293,
            0.1662270143939378,
            0.662691435636295,
            0.22931532923908043,
            0.1667556292467527,
            0.2643514642336289,
            -0.3710360048950423,
            -0.264499566982219,
            0.19085575769745458,
            0.5378673147066757,
            -0.6285967055764963,
            -0.3433032583484027
        ],
        [
            0.584938967492752,
            -0.22049950562900278,
            -1.2870496971294245,
            -0.5474258244548338,
            -0.698697984659008,
            -0.794791155645612,
            1.0086092847652757,
            1.0885611934075772,
            0.8378680648730281,
            -0.4517797563802136,
            0.15604060469493478,
            -0.6280789471660698,
            -0.6259359377430812,
            0.4957381124874314,
            -0.4387993579690624,
            -0.8372617888708266,
            -0.3087160040916556,
            -0.3098556401029164,
            1.4531133050867746,
            0.4777003442994037
        ],
        [
            0.8140129240298725,
            0.5024782232029945,
            -0.11975921907897703,
            0.5624740358166753,
            0.40379253992505554,
            -0.29807182734745225,
            -0.0032999639863784476,
            0.47162849011541114,
            -0.44966757491530096,
            -0.9937454611825837,
            -0.4757374709972867,
            0.6740312871954053,
            0.9291540388241745,
            0.24595255618275128,
            -0.7757733457577267,
            0.5217831095607709,
            0.19669591702120812,
            0.46186080560660303,
            0.674085887464452,
            0.9021436604248214
        ],
        [
            0.30251136475492696,
            0.6932385203105663,
            0.4997974920096529,
            0.4551865233690893,
            0.6868631203822255,
            0.79688572018254,
            0.8122489223997537,
            -0.2047519556979467,
            -0.8243194681179247,
            0.7258758066702481,
            0.0842285122878285,
            0.06740568114005076,
            0.6331129164261847,
            -0.9358409478356928,
            0.74960899158907,
            -0.962727689315068,
            0.3848428376044786,
            0.1857071161181099,
            0.268311152872183,
            -0.22346853627811528
        ],
        [
            -0.5687698499526362,
            -0.3898588441794767,
            0.1046035669147836,
            -0.017493988553873966,
            -0.13834869969092,
            -0.22135608693215167,
            1.614356101332621,
            0.9244818162874414,
            0.14297317889374953,
            -0.03523413162681952,
            -0.3353103796300304,
            0.4455784254446696,
            -0.31945616412390854,
            -0.17601342337947673,
            -0.49658371538206997,
            -0.4004350646745142,
            0.6307250376826978,
            0.4731418136081946,
            1.1294906255249655,
            0.9367446245689005
        ],
        [
            -0.3811489132680303,
            -1.1230647442226265,
            0.7334039340450945,
            -0.952703404573865,
            -1.2212236849017175,
            -0.29499568763936906,
            0.20807702137978773,
            -0.4755969659016205,
            -0.00581053731180604,
            -0.9704104317005671,
            0.9898581634137272,
            0.6187937829169343,
            -0.46589881339979583,
            -0.7414836283547616,
            0.39514807513524847,
            0.32752263960383393,
            -0.3678822423056678,
            0.9846083383548283,
            -0.6443590890768292,
            1.355646369522615
        ],
        [
            0.4715526942884542,
            0.30499710426274357,
            0.9100477533343218,
            -0.4975614672083401,
            0.7893180937959781,
            0.5060723016242026,
            0.35127284467533537,
            0.12099812080642723,
            0.6932553901147568,
            0.3779095967662825,
            -0.7393966853308469,
            0.04527478600048457,
            -0.34238803119172107,
            0.47826514503631606,
            -0.4867841410417407,
            -0.1417660284249118,
            -0.9425370707346962,
            -0.32466731803481086,
            0.1672510063472921,
            0.01904509322012362
        ],
        [
            0.758365984533177,
            -0.3744370574637551,
            0.30961993282028705,
            0.35789958471245187,
            -0.02406795891155938,
            0.5173206513826909,
            -0.5303437511974366,
            0.18743912322377546,
            0.2604023700624344,
            -0.9407512565414564,
            -0.9927932006280511,
            -0.48111010523534853,
            -0.011809264980797016,
            -1.0091859699921564,
            0.2431481580890027,
            -0.5959084725674012,
            -0.6454202301286842,
            -0.211349236589271,
            -0.8338507493213165,
            -0.21828964037238904
        ],
        [
            -1.2565009859159157,
            0.9408483757045506,
            0.09903308772054044,
            -0.254633812069243,
            -0.9321147347283691,
            0.2629860780459572,
            -0.1088414355728788,
            1.0936308392285385,
            -0.46500008286888533,
            0.051907181254041805,
            0.20808176707459203,
            -0.5888634937541489,
            0.12602428472250793,
            0.6822512439076514,
            -0.900950109051676,
            -0.0917300848211103,
            -0.552867643803785,
            -1.029196850419976,
            -0.9261278595461334,
            0.138365253068732
        ],
        [
            0.5440100852657395,
            -0.05257575898066647,
            -0.815668687643191,
            0.615370340890666,
            0.21527034722758706,
            -0.26632292899666743,
            0.5796365837608362,
            1.0696678902345123,
            -0.47386681008647075,
            -0.5281172900686759,
            0.18135910572408437,
            1.161875567149575,
            -0.25807686030074,
            -0.12722129976883806,
            -0.5402994034956212,
            -0.6176605753572751,
            0.6322855772171341,
            -0.8394912572811313,
            -0.8518943971434977,
            0.5066371252637344
        ],
        [
            -0.9772915072988853,
            -0.9862493724360359,
            -0.48424396144058274,
            -0.30733035711192486,
            -0.19254486223579756,
            0.6015247406200693,
            -0.9176884060907352,
            -0.24620617405487352,
            0.30558817835763785,
            -0.8886253448283239,
            0.627172234680459,
            0.26324520664549056,
            -0.7665157626351379,
            -0.3845377093272446,
            0.4594938660928705,
            -0.20684810553706598,
            -0.008871913237635662,
            0.8345596176393928,
            -0.7135162562816659,
            0.8977336246696028
        ],
        [
            -1.0140851215103308,
            -0.8497258946463109,
            -0.6980495826555357,
            0.5222608545540087,
            0.0391830840257471,
            0.5530931652194304,
            -0.6448713628573571,
            -0.553338048522678,
            0.07069793130425951,
            0.2519122188532777,
            -0.0935336806017773,
            1.115336226552348,
            0.41817779842445424,
            -0.37755837135382164,
            -0.5165561210752978,
            -0.25307497361826403,
            0.5569496140825296,
            0.9078898196916994,
            0.7229478056172525,
            -0.44117562017050005
        ],
        [
            -0.06598290917022141,
            0.3378978430300508,
            0.22057980831129628,
            -0.22958010718508892,
            -0.9407853425439501,
            0.8602412466888364,
            -0.9974245437251374,
            0.7326383363941864,
            0.9510544990770142,
            0.37775849534016004,
            -0.06823865667100414,
            0.06711065018600881,
            0.12092781757255894,
            0.09976758493480829,
            0.7973862636164788,
            -0.6610272180093302,
            -0.4578410724644934,
            -0.46788732286715423,
            0.013560478128285642,
            -0.050961853226193454
        ],
        [
            -0.4325098283741891,
            0.45431234246869695,
            -0.6624781217265202,
            -0.36930569720986334,
            0.02260889578445431,
            -0.16234225589377002,
            -0.2529581218503344,
            -0.5357561030167057,
            -0.9416989834214542,
            -0.0848519887805443,
            0.1344473448079948,
            -0.9969475909117443,
            -0.1950991820519203,
            -0.3137955863398977,
            1.228723608685554,
            -0.29199644379071504,
            -0.059181531846725526,
            0.09486724795438456,
            0.26463581000821046,
            -0.461124614145118
        ],
        [
            0.910691930386066,
            0.06260034785388226,
            0.18955729052931006,
            0.02710634444296948,
            0.3489069249447403,
            0.1967462266218729,
            -0.5833541212613811,
            -0.2885116509765259,
            -0.08540267433704198,
            -0.7817054984285865,
            -0.28655689664362555,
            -0.538360467299387,
            0.6279043981971784,
            -0.2986781988300268,
            -0.6003576054919519,
            -0.24588061204799283,
            0.399108025421326,
            -0.7087549737919381,
            -0.6082039456337582,
            0.4335105058818814
        ],
        [
            0.46069382809358805,
            0.37133169376812447,
            0.6710985616774459,
            -0.5776968708102659,
            0.7188752319530526,
            0.9313864576508112,
            -0.600760253436893,
            -0.5123025856194727,
            0.07380806041284878,
            -0.6065036520975855,
            0.3156633284851796,
            -0.5276848294692956,
            -0.47256498838596983,
            0.7221137238601772,
            0.9348954793801547,
            0.7368456742822315,
            0.9538383180505494,
            -0.7826397494916411,
            -0.7535920793957618,
            -0.8902406007985871
        ],
        [
            0.08715015213101297,
            0.72281966566775,
            -0.0010287361029107265,
            0.4019304488273897,
            -0.5443682432514861,
            1.1797197386945166,
            -0.7372898751313627,
            -0.8885383292224249,
            0.020886106083938896,
            0.07512931098902956,
            0.7786003350225508,
            -0.8268462658775464,
            0.013980184005812244,
            -0.9062143128196033,
            -0.12573547450593955,
            -0.192209293086783,
            0.027240619194243823,
            -0.5330541776472946,
            1.0020300743738155,
            0.24165418504549938
        ],
        [
            0.7224896630179162,
            0.0346541322226912,
            0.5748370166808165,
            -0.7449461438770308,
            0.9727003011257476,
            -0.8782077724329996,
            -0.7609871048878227,
            0.12204534589747199,
            -0.3685264301345705,
            0.052766265530158986,
            -0.6320382300432116,
            0.32308626117401323,
            -0.47500982680943354,
            0.6931569079183497,
            -0.483751043269316,
            0.49674448679973177,
            -0.5916735236866033,
            -1.2795752967928202,
            -1.450239956641337,
            -0.3083355268471399
        ],
        [
            -0.0525276023174636,
            0.3431338850612296,
            0.3794893396054328,
            -0.2960690773969617,
            -0.21110896994643172,
            0.40941923786497936,
            0.9603486035827381,
            -0.21939393915154914,
            -0.820124730497798,
            -1.0183048532129266,
            0.42118636636111784,
            -0.5474130935858724,
            -0.014733938389779995,
            -0.471065039470096,
            0.6789373466307896,
            -0.02205267478145412,
            -0.021399876595555017,
            0.03562014432977558,
            0.35775879344658584,
            -0.8570878299826187
        ],
        [
            -0.305728017309468,
            -0.190647433269334,
            -0.3188906824077149,
            -0.8652789410467046,
            0.09117698127603571,
            0.6733623127313498,
            0.7252166195691738,
            -0.19271432455022156,
            0.38520033449842234,
            -0.545604667392833,
            -0.7779661248495762,
            -1.0913092090279042,
            0.5664868292802558,
            0.3206258237249125,
            -0.6667708081342479,
            0.16723685869773164,
            -0.10132238492492773,
            -0.7206548928317708,
            0.7561816693327168,
            0.17450582267770678
        ],
        [
            0.2988778188394722,
            0.38816807051440944,
            0.7932886228293984,
            0.11398658533113208,
            0.4094327594086894,
            -0.2964561364870628,
            0.3631104290255374,
            1.1364628219173922,
            0.640328414557021,
            -0.5148006123847723,
            0.03818961391596436,
            -0.4129835404449577,
            -0.29705784656227463,
            0.4692009013274641,
            -0.5813434142793569,
            -0.028912527885935218,
            0.7570560701167348,
            0.24856194846839963,
            -0.32550727218402664,
            0.11862061664788387
        ],
        [
            0.7085188047529288,
            0.6713879218518956,
            0.5682295193562246,
            -0.9861645264515613,
            -0.49888792610618904,
            1.141052656632344,
            -0.7783185418588885,
            -0.01991594182433221,
            0.6813490435564121,
            -0.8549787890255607,
            0.2784315757908785,
            -0.15558163044508758,
            -0.4784642263847962,
            0.7375461745706715,
            -0.4790296613440739,
            0.3115597990455803,
            0.43661658462394604,
            0.12391622341756864,
            0.2740629535361564,
            -0.7918294657968806
        ],
        [
            -0.47846136533284345,
            0.11762266545036663,
            -0.32737069234152655,
            0.1307354834668735,
            0.6839019012901352,
            -0.2893421451210842,
            0.7771840681218917,
            -0.12196076696238084,
            1.0020611225960483,
            -0.07918944551072264,
            0.5590588619202054,
            0.3801236231134855,
            0.25501885866158025,
            -0.251681097968619,
            -0.688446336875152,
            -0.08437962421205701,
            -0.6065752905883224,
            -0.9103915692304773,
            -0.42928028199034146,
            -0.6386844866048526
        ],
        [
            0.6695890137690309,
            -0.851181801108223,
            -0.46201220450758157,
            0.4166696564552917,
            0.6126692604400733,
            -0.5020547675580728,
            -0.9979387396732247,
            0.935123880379147,
            0.347120412341024,
            -0.30388927993690706,
            0.049727498164553914,
            0.3054842294448729,
            -0.3684510610585667,
            0.6899731627990163,
            0.42465403571705973,
            0.8815762896396594,
            -0.31538983705396995,
            0.9089740149867732,
            -0.2098296141578775,
            0.43912019964807547
        ],
        [
            1.0168795342802375,
            0.9627936545071246,
            0.4750450370695909,
            0.3003710337532829,
            0.9159602693667831,
            0.3328309944889264,
            0.5604448008115944,
            0.4683510847138881,
            -0.8712802011341678,
            -0.09506595714647081,
            0.6437964099679107,
            -0.008784804804285486,
            0.22457282722186542,
            0.621218936119934,
            -0.4810808626434205,
            0.07422921301090775,
            -0.29392992378368454,
            -0.7930356659456806,
            0.03677065286562791,
            -0.01900538933848888
        ],
        [
            -0.5587446231517286,
            -0.08415599402870046,
            1.024803630103383,
            -0.35698986776742453,
            -1.0198288294496023,
            0.5375242913940852,
            0.007822310002741752,
            -0.8809805263861238,
            0.8380318044516616,
            -0.04454086295225223,
            0.8753619756731984,
            -0.27497683960964686,
            -0.8486846628866224,
            -0.5119456176502775,
            -0.2981533304016044,
            0.4776975849820552,
            -0.7391275939938016,
            -0.1228566058656801,
            0.7706096917974424,
            0.20050739352639194
        ],
        [
            -0.7940587919299086,
            -0.9358868559671298,
            0.2605974674987484,
            0.8095961076765193,
            0.5199636622165242,
            0.842559565864294,
            0.2608245819528083,
            0.5992913959442683,
            -0.9077226478178577,
            -0.6532888130333154,
            0.34304097850493265,
            0.6737951034427111,
            0.6097838009492474,
            -0.6571639553492121,
            1.0327782209237264,
            1.1277110080063035,
            -0.8782033087677058,
            -0.6393602416697725,
            -0.20329120564213002,
            0.4770608009383106
        ],
        [
            0.5710147332057961,
            0.08580966138201362,
            -0.8136360404116892,
            -0.23644072979654726,
            -0.7538484219791206,
            0.725534726571447,
            0.728356890157391,
            0.18598584609072263,
            -0.08054893259082047,
            -0.8387288096825632,
            -0.4652678781890861,
            -0.7704092306862936,
            0.5928321005767836,
            0.3629979468224107,
            -0.5561806584236841,
            -0.5725134601100392,
            -0.46847888457785525,
            -0.1579610644058416,
            -0.008190078054393068,
            -0.3252460514216086
        ],
        [
            0.200391278124449,
            -0.8981788107807374,
            -0.370467363200219,
            0.5264039293104604,
            0.9419545147600387,
            0.7649305648781122,
            -0.6042802513258244,
            -0.46022225761040153,
            -0.6463598932777206,
            0.826141518229578,
            -0.5428496313084844,
            0.7423492025898158,
            -0.5724949248249975,
            -0.9228106476684856,
            0.4256693549889899,
            0.19197422766395963,
            -0.762211662958817,
            -0.30897709444541477,
            0.6479006145450498,
            -0.49467059459108903
        ],
        [
            -0.8982170137907483,
            0.2017845533471008,
            0.7489039623104607,
            -0.5945840230115981,
            0.22416487907955066,
            0.37793924049689315,
            -0.6538481483694554,
            -0.9510014177072847,
            0.6275820089228408,
            -0.9289551706269977,
            -0.49587074554484306,
            0.6727377777382215,
            -0.4078084034965738,
            -0.8651944317604622,
            0.018879714059462482,
            -0.5569075098501136,
            -0.6927961445168298,
            0.9422569838571748,
            -0.6809659547912863,
            0.45653905397166616
        ],
        [
            0.783222121357455,
            0.7181287757363655,
            -0.6765918714314433,
            -0.4932686343518885,
            -0.845362787200423,
            0.7950582827880065,
            0.8065617187378911,
            0.19068404149091633,
            -0.868799318156073,
            -0.6625019763654599,
            0.15583528506565747,
            -0.31374001219480957,
            -0.4145584449641309,
            -0.6320312325878908,
            -0.7244542183464466,
            -0.12852363903339964,
            0.13314672458786894,
            0.011951571191478423,
            0.9692976555636134,
            -0.7437616324045733
        ],
        [
            0.24289172872499912,
            0.9015349277843447,
            -0.3936763678739914,
            0.22584731187314466,
            1.2765170886990458,
            0.8785614420529896,
            -0.8155211282342689,
            1.1360098482000252,
            -1.1680679833759453,
            -0.14788799771727504,
